{
  "num_features": 6,
  "num_observed_vars": 1,
  "num_latent_vars": 2,
  "individual_std": 0.15,
  "weight_range": 0.5,
  "population_mean": 0.0,
  "population_std": 0.4,
  "individual_std_percent": 1.0,
  "population_weights": [
    [
      -0.30024588690234916,
      0.5265429298847278,
      0.4984560114573722,
      -0.6419662965034378,
      -0.587257471591962,
      -0.6860281831893474
    ],
    [
      0.7435134766050218,
      0.035035190506321395,
      -0.020928878569893655,
      0.22218865466185986,
      -0.3853614776598252,
      -0.07212858619208853
    ]
  ],
  "individual_deviation": [
    [
      -0.47336366244381783,
      0.24217836827754624,
      -0.38066022136879396,
      0.14434242391150165,
      0.424244102440351,
      -0.046860871365058565
    ],
    [
      0.3302659402165251,
      -0.4839254207256901,
      -0.47620144652109264,
      0.08794872841255166,
      -0.08516765204971016,
      -0.5645996573620757
    ]
  ],
  "latent_weights": [
    [
      -0.773609549346167,
      0.7687212981622741,
      0.11779579008857821,
      -0.4976238725919362,
      -0.16301336915161097,
      -0.732889054554406
    ],
    [
      1.0737794168215469,
      -0.4488902302193687,
      -0.4971303250909863,
      0.3101373830744115,
      -0.47052912970953537,
      -0.6367282435541642
    ]
  ],
  "factor_loadings": [
    [
      0.7422191372406057,
      0.26450156267952724
    ]
  ],
  "item_biases": [
    0.1530446327719519
  ],
  "item_noises": [
    0.22260578185665586
  ],
  "bias": 0.0,
  "noise_std": 0.1,
  "interaction_terms": {
    "x4*x5": 0.20816394787614412,
    "x1*x2": 0.3300889556475718,
    "x2*x4": 0.1704814028782296
  },
  "interaction_scale": 0.4,
  "likert_levels": null,
  "likert_sensitivity": 1.0,
  "individual_corr": 0.0,
  "use_latent": false,
  "fixed_weights": [
    [
      0.29457491622821697,
      0.49082268098078163,
      0.30501720058045223,
      -0.1225845942835776,
      0.01573742562183944,
      -0.4411010786279226
    ]
  ],
  "deterministic_individual_std": 0.0
}